//Numpy array shape [3, 3, 4, 4]
//Min -1.061660647392
//Max 0.750638365746
//Number of zeros 0

#ifndef W11_H_
#define W11_H_

#ifndef __SYNTHESIS__
model_default_t w11[144];
#else
model_default_t w11[144] = {0.642784714698792, -0.082368671894073, -0.515211939811707, -1.061660647392273, 0.567012786865234, -0.162812680006027, 0.618022680282593, -0.759383678436279, 0.672265470027924, -0.029724057763815, 0.235737308859825, 0.003051986685023, -0.031529545783997, 0.161631792783737, 0.335786879062653, -0.305411875247955, 0.220459014177322, -0.431578814983368, 0.079710789024830, -0.028365951031446, 0.391028583049774, -0.207524821162224, 0.151001960039139, 0.141225606203079, -0.040126979351044, -0.055135060101748, 0.241433814167976, -0.216614767909050, 0.271303266286850, 0.105939954519272, 0.265546858310699, 0.046964101493359, -0.334993720054626, -0.021648189052939, -0.047268573194742, -0.023823298513889, -0.055821210145950, 0.018589461222291, 0.015639269724488, -0.019104922190309, 0.108754828572273, 0.154779434204102, -0.022726073861122, -0.154774129390717, 0.213039949536324, -0.049776881933212, -0.019869793206453, 0.106098383665085, 0.089698195457458, -0.011635701172054, -0.062834888696671, -0.019323986023664, -0.602557182312012, 0.037579175084829, 0.578953504562378, 0.238036125898361, 0.239341244101524, 0.022228343412280, -0.194046199321747, 0.073193907737732, -0.031309697777033, -0.074045859277248, 0.081952340900898, -0.024456435814500, 0.073469340801239, -0.223404660820961, -0.063625507056713, 0.086075484752655, -0.072277329862118, 0.007837977260351, 0.106494583189487, -0.046858407557011, -0.046746030449867, 0.026922352612019, -0.175168588757515, 0.205529272556305, 0.514670252799988, 0.151464268565178, 0.008870365098119, 0.063150107860565, 0.607069849967957, -0.013897437602282, -0.045329909771681, 0.049895130097866, -0.048324219882488, -0.474842041730881, 0.203938513994217, -0.099113129079342, 0.584895670413971, 0.514309287071228, 0.240948915481567, 0.122100181877613, 0.221404299139977, -0.036694854497910, -0.226076126098633, 0.079890564084053, 0.063007377088070, -0.012688742950559, 0.094397850334644, 0.002965351799503, 0.147098243236542, -0.047850411385298, 0.072243005037308, 0.011632955633104, 0.004493679851294, 0.057150997221470, 0.079910010099411, -0.002082985825837, 0.068745926022530, 0.005612691864371, -0.056361209601164, 0.086672924458981, 0.245953515172005, -0.049230277538300, -0.013131353072822, 0.150059029459953, 0.127753898501396, -0.035862572491169, 0.030019082129002, 0.036339640617371, 0.046502217650414, -0.191613733768463, 0.235254898667336, -0.268081724643707, 0.051626224070787, -0.182376101613045, -0.201290905475616, 0.750638365745544, -0.265511929988861, 0.105337314307690, -0.088238120079041, -0.203233674168587, 0.025895785540342, 0.081895992159843, 0.100831463932991, -0.031992636620998, 0.276687502861023, -0.214836150407791, -0.118551209568977, 0.210399761795998, -0.121182471513748, 0.140756666660309, 0.092907778918743, -0.087341599166393};
#endif

#endif
