//Numpy array shape [3, 3, 4, 4]
//Min -1.482234239578
//Max 0.826145112514
//Number of zeros 0

#ifndef W14_H_
#define W14_H_

#ifndef __SYNTHESIS__
model_default_t w14[144];
#else
model_default_t w14[144] = {-0.040888320654631, 0.035165634006262, 0.170836716890335, -0.122092545032501, 0.280229598283768, -0.037895377725363, 0.076329469680786, -0.274746388196945, 0.097340703010559, -0.198746740818024, 0.276773095130920, -0.078941203653812, -0.069895617663860, 0.180407404899597, -0.367236047983170, 0.476408749818802, 0.198079600930214, 0.018143791705370, -0.271222114562988, 0.230861306190491, -0.079585589468479, 0.045409407466650, -0.179396927356720, 0.216513291001320, -0.012883706018329, 0.190935388207436, 0.309373408555984, -0.195245280861855, -0.329612463712692, 0.083282753825188, -0.026228291913867, -0.296745747327805, 0.806914269924164, 0.028733562678099, 0.096281677484512, 0.012624406255782, -0.007846097461879, -0.154347136616707, -0.075178638100624, 0.283963918685913, 0.207071900367737, 0.274963438510895, -0.082800216972828, 0.410774588584900, 0.068447150290012, -0.114234231412411, 0.163674786686897, -0.019400870427489, -0.020249260589480, 0.193583503365517, 0.107589811086655, 0.085040390491486, 0.072329998016357, 0.471825152635574, -0.095272660255432, -0.185589730739594, 0.048185307532549, 0.084822632372379, -0.328356295824051, -0.199274495244026, -0.410109400749207, 0.109101556241512, 0.332745641469955, -0.084775879979134, 0.014068371616304, 0.047850240021944, -0.187595963478088, -0.238705769181252, 0.546008288860321, -0.202590987086296, 0.205002292990685, 0.276738017797470, -0.031117156147957, -0.069082051515579, -0.099567241966724, 0.057892475277185, 0.179710313677788, 0.396680653095245, 0.019648848101497, 0.062017150223255, -0.155977740883827, -0.182416856288910, 0.096883594989777, -0.419225364923477, 0.119933888316154, 0.160127148032188, 0.190422102808952, 0.198784589767456, -0.137743622064590, 0.229353606700897, -0.243437364697456, -0.335126370191574, -0.165611833333969, -0.395246803760529, 0.072998493909836, 0.234032630920410, -0.399943232536316, 0.076953597366810, 0.062892585992813, -0.004493104293942, -1.482234239578247, 0.045204631984234, -0.291809618473053, -0.009147853590548, 0.094217114150524, -0.160546645522118, 0.078293815255165, 0.220074266195297, -0.237532004714012, -0.049804635345936, 0.063509501516819, 0.053255856037140, 0.514631032943726, -0.017691647633910, 0.243719175457954, 0.090440414845943, -0.116717435419559, -0.143216624855995, 0.333787977695465, -0.192035749554634, 0.126037701964378, 0.050054512917995, 0.208517447113991, -0.185142323374748, 0.180667936801910, -0.101108871400356, -0.097871191799641, -0.278785675764084, 0.423754036426544, -0.238733351230621, 0.020344000309706, -0.009750110097229, -0.131697729229927, 0.013781750574708, 0.023313174024224, 0.155257016420364, -0.212727844715118, -0.227358967065811, -0.217158451676369, -0.027948854491115, 0.826145112514496, -0.266778737306595, 0.019608644768596, 0.427400797605515};
#endif

#endif
