//Numpy array shape [3, 3, 4, 8]
//Min -0.649194240570
//Max 0.594319164753
//Number of zeros 0

#ifndef W17_H_
#define W17_H_

#ifndef __SYNTHESIS__
model_default_t w17[288];
#else
model_default_t w17[288] = {0.259282737970352, 0.230112835764885, -0.154260143637657, -0.270777016878128, -0.018984522670507, 0.061975102871656, 0.142608001828194, 0.075953058898449, -0.264856487512589, -0.151946201920509, 0.077762566506863, 0.168790295720100, -0.020914781838655, 0.242661997675896, -0.135701939463615, -0.149922519922256, 0.128448590636253, -0.086154773831367, 0.350158393383026, -0.159553140401840, -0.150900512933731, -0.312226951122284, 0.099569037556648, 0.314048141241074, 0.041915018111467, 0.055437218397856, 0.030925229191780, -0.063157290220261, 0.230478480458260, -0.257893502712250, 0.099052116274834, 0.234748303890228, 0.154770970344543, -0.067845910787582, 0.060407470911741, 0.058019667863846, 0.079999409615993, 0.132222726941109, -0.242879718542099, 0.081555761396885, 0.141107156872749, 0.091720409691334, 0.175033286213875, -0.392239302396774, -0.293323218822479, -0.239484146237373, -0.272278219461441, 0.587798237800598, 0.104693844914436, 0.250450104475021, -0.402703881263733, -0.149077728390694, 0.102294608950615, 0.054121941328049, 0.087074704468250, -0.387896418571472, 0.211025685071945, -0.068194933235645, -0.059137362986803, -0.338261663913727, -0.221448302268982, 0.397134035825729, -0.430952519178391, -0.291319042444229, 0.253074884414673, -0.097434952855110, -0.102649718523026, -0.245110049843788, -0.064383141696453, -0.054688785225153, 0.063977293670177, -0.070023052394390, -0.003861339762807, -0.174132481217384, 0.594319164752960, 0.101806774735451, 0.028319172561169, -0.298778563737869, 0.244560077786446, 0.076382920145988, -0.057169362902641, -0.020363541319966, -0.048291828483343, 0.351941436529160, 0.311003714799881, -0.157883211970329, 0.167331278324127, 0.059214383363724, 0.229133725166321, -0.084810197353363, -0.126138776540756, 0.048599988222122, 0.162320330739021, -0.036081034690142, -0.056554049253464, -0.154307827353477, -0.157393559813499, 0.217237398028374, -0.308715999126434, -0.649194240570068, 0.119377866387367, 0.248237088322639, -0.209636092185974, -0.129328459501266, -0.038031961768866, -0.013180471025407, -0.182500749826431, -0.217312410473824, -0.239173218607903, -0.104844599962234, 0.326772093772888, 0.237274959683418, 0.159998089075089, 0.041363816708326, -0.403190881013870, 0.145242914557457, -0.174019411206245, -0.113262400031090, 0.046531725674868, 0.452305704355240, -0.024164402857423, -0.039918813854456, -0.265687435865402, -0.159932583570480, 0.150949716567993, 0.172851666808128, -0.041254393756390, -0.490625321865082, 0.142387121915817, 0.003838613163680, -0.135397747159004, 0.312605440616608, -0.054541345685720, 0.067219868302345, -0.059437617659569, -0.306939452886581, -0.096905261278152, 0.222626835107803, 0.086901552975178, -0.088371507823467, 0.187130957841873, 0.072122015058994, -0.103372044861317, 0.162584573030472, -0.136576369404793, -0.123375348746777, 0.278827637434006, 0.231413453817368, 0.056640591472387, -0.367318063974380, 0.325503379106522, 0.208652600646019, -0.194518625736237, 0.018410438671708, 0.091132894158363, 0.241976380348206, 0.178983435034752, -0.260069012641907, 0.115447551012039, 0.088352352380753, 0.238530755043030, 0.061370853334665, -0.084432393312454, 0.045499563217163, 0.233188584446907, 0.000783338444307, 0.135697156190872, -0.199630632996559, -0.145597040653229, 0.026923982426524, -0.018007617443800, -0.189148679375648, -0.220140308141708, 0.183562278747559, -0.043742258101702, -0.009546484798193, 0.141770496964455, 0.189972937107086, 0.065024062991142, -0.207308158278465, -0.232740893959999, 0.234709173440933, -0.151808962225914, 0.044436328113079, -0.069103963673115, -0.027046605944633, -0.208746269345284, -0.013940506614745, 0.067110039293766, 0.158672541379929, -0.315280348062515, -0.130209922790527, -0.072761803865433, -0.352735430002213, 0.442109584808350, 0.092817842960358, -0.157302707433701, -0.120670869946480, -0.200138628482819, 0.118908457458019, -0.058327849954367, 0.124593451619148, -0.152994692325592, -0.191014930605888, 0.471866756677628, -0.323924183845520, 0.216834396123886, 0.103296361863613, 0.037580989301205, -0.041694201529026, -0.304781794548035, 0.226002976298332, -0.053656831383705, 0.193845838308334, 0.088441550731659, -0.281668931245804, -0.071289986371994, 0.019243702292442, 0.460695147514343, 0.137959390878677, 0.195849776268005, -0.008475146256387, -0.000102351499663, 0.018485479056835, 0.054915640503168, 0.233723342418671, 0.322368741035461, -0.127258807420731, 0.055964153259993, -0.059878561645746, -0.355144619941711, 0.026424311101437, 0.195652410387993, 0.156430929899216, -0.030911706387997, -0.316977411508560, 0.071597293019295, 0.100652225315571, -0.000511963793542, -0.156141936779022, -0.067723996937275, 0.049688033759594, -0.361128240823746, 0.028533166274428, 0.115658104419708, -0.028303978964686, -0.025828894227743, -0.245569542050362, 0.106601610779762, 0.145671933889389, -0.081367045640945, 0.390188306570053, 0.235207229852676, 0.173776596784592, -0.235827073454857, -0.002463702112436, 0.043067406862974, -0.103872589766979, 0.403662234544754, -0.319965183734894, 0.154708668589592, 0.210714578628540, -0.293290615081787, -0.243405029177666, -0.008466836996377, -0.000356454547727, 0.161542251706123, 0.072848916053772, -0.023716766387224, 0.215301528573036, -0.014958298765123, -0.017602900043130, -0.009242351166904, 0.193099707365036, 0.213278681039810, -0.589498698711395, 0.152994945645332, 0.060061663389206, 0.023655503988266, -0.039548195898533, 0.043776623904705, 0.084467217326164, -0.210040524601936, 0.170731812715530, -0.086123228073120, 0.006280496716499, 0.141767099499702, -0.303037285804749};
#endif

#endif
