//Numpy array shape [3, 3, 8, 1]
//Min -0.622608244419
//Max 0.356350481510
//Number of zeros 0

#ifndef W20_H_
#define W20_H_

#ifndef __SYNTHESIS__
model_default_t w20[72];
#else
model_default_t w20[72] = {0.132488876581192, -0.272343456745148, 0.332606673240662, 0.081131875514984, -0.622608244419098, -0.022421272471547, 0.049626208841801, -0.142580240964890, -0.338595479726791, -0.049789052456617, 0.114612586796284, 0.159209266304970, -0.553252756595612, -0.394709408283234, 0.156371399760246, 0.058165397495031, -0.485407561063766, 0.278198897838593, 0.171734303236008, 0.034985210746527, -0.405655741691589, -0.382185786962509, -0.024943726137280, -0.271154344081879, -0.309005588293076, -0.034191202372313, -0.093903452157974, 0.120385900139809, -0.339746326208115, -0.266941159963608, 0.219110429286957, 0.029828127473593, -0.531921446323395, 0.070000804960728, -0.392636179924011, 0.247097641229630, -0.104788534343243, -0.499566048383713, -0.085237190127373, 0.232248350977898, -0.421319186687469, 0.011245186440647, -0.358766287565231, 0.039014235138893, -0.057802058756351, -0.448001921176910, 0.174450844526291, -0.088451340794563, -0.383039414882660, -0.336747288703918, -0.456544488668442, -0.035644136369228, 0.322300046682358, -0.384474635124207, 0.223833739757538, 0.316205471754074, -0.325102239847183, -0.240772649645805, -0.420819610357285, 0.107687614858150, 0.356350481510162, -0.377402633428574, -0.067358143627644, 0.155309140682220, 0.132569700479507, -0.188914731144905, -0.145832955837250, -0.187524810433388, 0.210839748382568, 0.205557987093925, 0.202622607350349, -0.064455516636372};
#endif

#endif
