//Numpy array shape [3, 3, 8, 4]
//Min -0.788079500198
//Max 0.981418967247
//Number of zeros 0

#ifndef W5_H_
#define W5_H_

#ifndef __SYNTHESIS__
model_default_t w5[288];
#else
model_default_t w5[288] = {-0.055817060172558, -0.089129664003849, 0.140454888343811, 0.038300741463900, -0.010698010213673, 0.003957455046475, -0.022426389157772, 0.098685339093208, 0.265447497367859, 0.167151167988777, 0.100638702511787, -0.264570266008377, 0.029082955792546, -0.001091036829166, 0.054330434650183, 0.003637251909822, 0.196121811866760, 0.089130081236362, -0.124332249164581, -0.190708532929420, 0.021707374602556, 0.015145110897720, 0.065290026366711, 0.094072960317135, 0.346912443637848, 0.075572490692139, 0.199688747525215, -0.358145385980606, 0.033927969634533, -0.033883277326822, 0.094085939228535, -0.059208881109953, 0.981418967247009, 0.192469581961632, 0.150817364454269, -0.788079500198364, 0.072029784321785, 0.018906489014626, 0.182006403803825, -0.507051169872284, 0.351823270320892, 0.150506526231766, -0.050020292401314, -0.351952403783798, 0.017173986881971, -0.093378953635693, 0.052695628255606, -0.114695347845554, 0.277043104171753, 0.091002322733402, 0.149262323975563, -0.321518331766129, 0.016625441610813, -0.019835261628032, 0.125447914004326, 0.024967955425382, 0.515204966068268, 0.141490921378136, 0.218560799956322, -0.391569525003433, 0.097311615943909, 0.023873811587691, 0.123394399881363, -0.208929061889648, 0.083752378821373, -0.010446286760271, 0.047227781265974, -0.033481843769550, -0.001002681441605, -0.105749696493149, 0.021016312763095, -0.024439167231321, -0.046132549643517, 0.098522640764713, -0.008319955319166, -0.078909188508987, -0.193343937397003, -0.120550632476807, -0.165737718343735, 0.023197770118713, -0.034742455929518, 0.000066302920459, -0.041097208857536, -0.022687077522278, -0.051247309893370, -0.084142349660397, -0.119012802839279, 0.086262762546539, -0.110762938857079, 0.027442498132586, -0.060859769582748, -0.067557483911514, -0.035102833062410, -0.085635170340538, -0.125308662652969, -0.000958530290518, 0.037805654108524, 0.031000252813101, 0.242219075560570, -0.058546803891659, -0.145414158701897, -0.267347216606140, -0.182487651705742, -0.019391804933548, -0.065674409270287, -0.028367193415761, 0.057688269764185, -0.009953945875168, -0.016331467777491, -0.248126849532127, -0.150221496820450, -0.015762768685818, -0.191440001130104, -0.091594025492668, -0.034548353403807, 0.127354741096497, -0.027633843943477, -0.170178547501564, -0.206586569547653, 0.004430862143636, 0.239245817065239, -0.052529662847519, 0.289130747318268, -0.217314168810844, 0.377922922372818, 0.081900492310524, 0.433175325393677, 0.087135106325150, 0.228383526206017, 0.076444119215012, 0.215614736080170, -0.218803405761719, 0.405713230371475, 0.114536032080650, 0.315554440021515, 0.133235141634941, 0.287093102931976, 0.073972888290882, 0.059026721864939, -0.235699057579041, 0.438977867364883, 0.361939877271652, 0.445343345403671, 0.165800854563713, 0.354970425367355, 0.244524076581001, -0.055607654154301, -0.175042673945427, 0.002387422602624, -0.259896457195282, -0.134991168975830, -0.187107115983963, 0.457849770784378, 0.087881132960320, 0.145649388432503, -0.258913695812225, 0.095621272921562, -0.101949751377106, -0.013407067395747, -0.325501918792725, 0.659862041473389, 0.277092844247818, 0.110624656081200, -0.435548186302185, 0.047727398574352, 0.024400206282735, -0.020182276144624, -0.383723169565201, -0.128663644194603, -0.056026324629784, -0.200621858239174, 0.097414329648018, -0.105585806071758, -0.211611032485962, -0.077814184129238, 0.107613489031792, 0.089249767363071, -0.045477595180273, -0.077034182846546, -0.095376394689083, 0.015925168991089, -0.042620446532965, 0.025372222065926, 0.073979198932648, 0.831859409809113, 0.172771140933037, 0.017070626839995, -0.576086521148682, 0.007459437008947, 0.132996827363968, 0.101444639265537, -0.529834926128387, -0.066050924360752, 0.075329340994358, -0.339534610509872, 0.087312467396259, 0.037624083459377, -0.017627295106649, -0.118753306567669, 0.024699121713638, 0.096934393048286, 0.049157101660967, -0.004515692591667, -0.100839234888554, 0.005453321617097, 0.067465312778950, -0.073512658476830, 0.023585591465235, 0.348211497068405, 0.162343278527260, 0.253565102815628, -0.219823598861694, -0.043826583772898, 0.126596540212631, -0.089317329227924, -0.220186904072762, 0.421207457780838, 0.194443702697754, 0.059188738465309, -0.345693767070770, -0.048164062201977, -0.107014492154121, 0.232103854417801, -0.152030631899834, 0.341659605503082, 0.175895214080811, 0.087084881961346, -0.212009966373444, 0.180399581789970, 0.041295591741800, 0.162447497248650, 0.076881840825081, 0.422897696495056, 0.223296254873276, -0.010145045816898, -0.303982466459274, 0.158329486846924, 0.064761102199554, 0.237131208181381, -0.048020057380199, 0.160146266222000, 0.040735911577940, 0.006399147678167, -0.250211924314499, -0.183164909482002, -0.159369438886642, 0.166443303227425, -0.226267859339714, 0.091052949428558, -0.151134535670280, 0.024073697626591, -0.026109781116247, 0.262860983610153, -0.019515810534358, 0.071324326097965, 0.071739412844181, 0.053014531731606, 0.005714896135032, -0.049182508140802, -0.142313018441200, 0.142670109868050, -0.035614583641291, 0.152338504791260, 0.070117756724358, -0.321929126977921, -0.262748003005981, -0.218763440847397, 0.095286384224892, -0.708531677722931, -0.463464081287384, -0.317917376756668, -0.071692578494549, -0.268246948719025, 0.075030609965324, -0.110070668160915, 0.100531920790672, -0.118634656071663, -0.418325185775757, -0.246295645833015, 0.146555170416832, -0.285304635763168, -0.016553523018956, -0.239607155323029, 0.123422145843506, -0.143903419375420, -0.484702974557877, -0.321064114570618, 0.114521302282810};
#endif

#endif
